€ 0.0523906 -0.11769 0.122031 -0.040574 0.0586562 -0.157558 -0.110709 0.0399861 -0.0368415 0.126229
Œ 0.052991 -0.0363309 -0.215312 -0.129936 0.0742878 0.00678862 0.127831 0.0178132 -0.0573589 0.0368684
Ù -0.16622 -0.16594 -0.0432704 -0.0466502 -0.0398384 -0.15722 -0.0620377 -0.145732 -0.0894481 0.0856965
Ÿ -0.0605392 -0.0149647 0.0720703 0.0459361 -0.00502833 0.011781 0.0381015 0.000135831 -0.00842234 0.0881312
! -0.0882559 -0.10823 0.0156849 -0.133979 -0.0421664 0.0374674 -0.0328576 -0.0507908 0.0102356 -0.118244
" -0.0617177 0.099584 -0.142162 0.0205979 -0.0444339 -0.0795417 -0.0957396 0.0558669 0.000527363 -0.0924576
% 0.0127571 -0.0176771 1.91542e-05 -0.080123 0.0551334 0.0591047 -0.0738473 0.0494041 -0.0930884 -0.161197
$ -0.0956181 -0.0654106 0.0730138 -0.0280712 0.251844 -0.0334029 0.113786 -0.155874 0.220915 -0.134583
' 0.188267 -0.107652 0.0746521 -0.185856 -0.0908387 -0.102758 -0.0406883 -0.0240204 -0.247823 -0.0451456
& -0.0216127 -0.18443 0.0834448 0.0370624 -0.0285072 0.0947061 0.0212905 -0.0134622 -0.0216885 0.0433906
) 0.0792711 0.104097 -0.0281377 -0.0499523 0.0916032 0.0151253 -0.104128 0.0589079 0.0399714 0.110086
( -0.0518364 -0.0182891 -0.0616983 0.174968 -0.120984 -0.00564446 -0.0951714 0.154153 -0.00301389 -0.00749428
* 0.134936 -0.0433574 -0.0745662 -0.0754471 0.260454 -0.100435 0.183672 -0.151158 -0.0961761 0.0124119
- 0.0124802 0.0899856 0.0673189 0.0159688 0.0178433 -0.189024 -0.0918025 0.116074 0.0468146 0.0159646
/ 0.0750412 0.0318316 0.0670657 0.15191 0.163365 -0.0407029 -0.136551 0.0344924 0.131663 -0.176127
. -0.0404938 0.138271 0.11265 0.104664 -0.171939 -0.167212 -0.0549879 -0.0492242 -0.0786931 -0.0154048
1 -0.0174278 -0.120131 -0.05628 -0.0339988 0.232011 0.0210153 -0.0220515 -0.0254503 0.034372 0.0799163
0 -0.0106821 -0.114106 0.0970473 0.126838 0.118388 -0.0751114 -0.265212 0.155598 -0.135971 -0.167189
3 0.0212456 -0.0130147 0.033343 0.091713 -0.0376653 0.0899604 0.0114637 -0.123367 0.176485 -0.0630833
2 0.0347079 -0.0112981 0.0801306 -0.0861657 0.0908463 -0.075495 -0.0242999 -0.196703 0.000504882 -0.100593
5 -0.00788582 0.199752 -0.0937932 -0.0633038 -0.0996173 0.0385927 0.0946528 0.084057 -0.0375304 -0.0254383
4 -0.174897 -0.127523 -0.0532196 0.114846 0.276715 0.0183192 -0.104506 0.126087 -0.128362 0.159935
7 -0.107332 0.195112 -0.123633 -0.0877889 0.121568 -0.0575874 0.0528953 0.0614574 -0.0165412 -0.0530177
6 -0.0793445 0.136708 -0.0350063 -0.169575 -0.155101 0.0189859 0.0740056 0.0860173 0.0330097 0.00273441
9 -0.0453442 -0.0503857 -0.0843068 0.0254179 -0.0404101 -0.0253825 0.06384 -0.0135883 -0.0430745 -0.108597
8 -0.0104077 0.0247076 -0.0548037 0.00630879 -0.042511 0.00658278 0.0232047 -0.0242562 0.0191814 0.138427
: -0.0187121 -0.011664 0.102479 -0.0340644 -0.035999 0.127645 0.130962 0.121388 -0.109498 -0.0750369
< 0.0491557 0.0630143 0.0569731 0.0592959 0.0285518 0.0886881 0.249892 -0.0483495 -0.0843392 -0.0765049
> 0.0759043 -0.0692306 -0.0230686 -0.0169177 -0.115172 0.022725 0.225714 0.0715876 0.0445043 0.0865626
A -0.0198314 0.0707362 0.120749 -0.133892 -0.184667 0.118167 0.128031 0.0546122 0.0844581 -0.104811
E 0.0993324 -0.0377159 0.0943778 -0.0948975 -0.0185403 -0.0579219 0.00023452 -0.0115144 0.187453 0.224414
D -0.178035 0.0714459 -0.00308256 -0.0942063 0.0218572 0.14866 0.116946 0.127378 -0.0111615 -0.0792123
I 0.0639882 -0.102373 -0.00553196 0.0133856 0.149401 -0.0386775 -0.136798 -0.105908 0.112175 -0.0344159
H -0.0748456 0.0674073 -0.054344 -0.111448 -0.0686782 -0.0145779 0.0394781 -0.0844451 -0.0379721 -0.0529349
M 0.0639882 -0.102373 -0.00553196 0.0133856 0.149401 -0.0386775 -0.136798 -0.105908 0.112175 -0.0344159
S -0.112174 -0.09148 0.106731 0.230276 0.104865 0.0597748 -0.0384022 0.0621167 0.00581799 -0.0865989
T -0.0687125 -0.0155149 0.0590436 -0.008959 -0.0909152 -0.214452 -0.0794487 -0.0427914 0.146541 -0.0680743
Y 0.085646 -0.102474 0.0940152 -0.100789 -0.0355128 0.107891 -0.143108 -0.0317716 -0.00581227 -0.053073
Ø 0.119213 0.0470307 0.0252057 0.0403911 0.019155 0.0512952 0.0898867 -0.140746 0.0322343 -0.0764836
Z 0.146595 0.124932 -0.00443311 -0.0726517 -0.0780975 -0.00539431 -0.20952 0.0623969 -0.00954147 -0.259649
_ 0.0639882 -0.102373 -0.00553196 0.0133856 0.149401 -0.0386775 -0.136798 -0.105908 0.112175 -0.0344159
_###_ 0.105563 -0.133907 -0.178735 -0.0393541 0.287014 0.0783204 -0.108312 -0.141167 0.0781842 -0.0803861
b -0.104145 -0.010139 -0.0778201 0.122955 -0.17611 -0.15671 0.0394021 0.02928 -0.217262 0.0935339
d -0.103452 -0.138248 -0.0920487 0.0572368 -0.239585 0.0625846 -0.0984809 -0.128515 0.0109187 0.0308868
g -0.0390768 0.154109 -0.012903 -0.0183036 -0.0866053 -0.068471 -0.0590972 -0.0192563 -0.0301478 -0.0288762
f -0.0547997 -0.0320328 -0.00233941 0.0582409 0.0232378 0.0155211 -0.11113 0.0838269 0.0411574 -0.0581057
h -0.0779868 0.022745 0.0336525 -0.111425 0.0570592 -0.08659 -0.0813954 0.123222 -0.00590523 -0.138222
k 0.170005 -0.0615385 0.0435822 -0.0130923 0.246972 0.0379975 -0.0196172 -0.0408645 -0.0524441 -0.138898
j 0.0317314 0.0151138 -0.0163265 0.0936868 -0.130092 -0.342707 0.0798572 0.099167 0.117983 0.10509
m 0.0743921 0.0108378 0.160857 -0.0525072 -0.039779 0.0497401 -0.120009 -0.0201303 -0.145071 0.104458
l 0.0223064 -0.0286408 0.26169 -0.150735 0.287653 0.00718331 -0.0402035 0.103557 0.0473124 0.113183
n 0.0298588 0.0352151 -0.0262932 0.164354 0.0114942 0.0998542 -0.0763075 0.0976869 0.0658047 0.0353542
q -0.0315324 0.0607262 0.0369355 -0.00959947 0.0214242 -0.205837 -0.0772771 -0.131568 0.0942429 -0.0528082
p -0.0626715 -0.200006 -0.116646 0.126363 -0.0999583 0.0747557 0.16303 0.0223368 0.140161 -0.10486
s 0.111466 0.0757332 0.0457641 0.168938 -0.0229486 0.0340017 0.0971019 -0.287409 0.0833118 -0.124106
r -0.191854 -0.0844634 0.0482563 -0.22619 0.103335 -0.158763 0.042436 0.109836 0.0542462 -0.0221202
t 0.00644789 -0.0888884 0.0470273 0.0375284 -0.122134 -0.0638436 -0.0999342 0.0639791 0.134301 0.139443
w 0.113568 -0.0165244 -0.0186072 0.035052 0.030968 -0.150604 0.0729988 -0.081667 0.083471 -0.111348
v -0.103866 0.0345587 -0.0155193 0.223311 -0.0297216 0.0783802 -0.021346 0.00225659 -0.221662 0.0408545
y 0.0476149 -0.00913804 0.142164 0.0964534 0.0478892 0.0132876 -0.0715108 0.007498 0.235026 0.159515
x 0.0693702 0.0315867 -0.126623 -0.0083387 -0.0485979 0.00534562 0.111139 -0.0455232 0.0152019 -0.0789168
z -0.106528 -0.0204937 0.14138 -0.162384 0.185198 0.0327464 0.0926837 0.143968 -0.00337913 0.0999621
} 0.0288931 0.126429 0.243819 -0.237732 0.0394252 -0.0603227 0.127024 0.0225273 0.148374 0.00689613
| 0.0855511 -0.0921169 -0.111345 -0.110489 -0.122928 -0.0543736 -0.0494948 0.0136464 -0.0242377 0.0201849
